<?xml version="1.0"?>
<opencv_storage>
<cascade>
  <stageType>BOOST</stageType>
  <featureType>HAAR</featureType>
  <height>40</height>
  <width>40</width>
  <stageParams>
    <boostType>GAB</boostType>
    <minHitRate>9.9900001287460327e-01</minHitRate>
    <maxFalseAlarm>4.4999998807907104e-01</maxFalseAlarm>
    <weightTrimRate>9.4999999999999996e-01</weightTrimRate>
    <maxDepth>1</maxDepth>
    <maxWeakCount>100</maxWeakCount></stageParams>
  <featureParams>
    <maxCatCount>0</maxCatCount>
    <featSize>1</featSize>
    <mode>ALL</mode></featureParams>
  <stageNum>8</stageNum>
  <stages>
    <!-- stage 0 -->
    <_>
      <maxWeakCount>2</maxWeakCount>
      <stageThreshold>-2.8897175192832947e-01</stageThreshold>
      <weakClassifiers>
        <_>
          <internalNodes>
            0 -1 12 -8.9477943256497383e-03</internalNodes>
          <leafValues>
            7.0909088850021362e-01 -7.5238096714019775e-01</leafValues></_>
        <_>
          <internalNodes>
            0 -1 3 1.5391610562801361e-02</internalNodes>
          <leafValues>
            4.6340918540954590e-01 -9.3138933181762695e-01</leafValues></_></weakClassifiers></_>
    <!-- stage 1 -->
    <_>
      <maxWeakCount>4</maxWeakCount>
      <stageThreshold>-6.4271497726440430e-01</stageThreshold>
      <weakClassifiers>
        <_>
          <internalNodes>
            0 -1 8 -3.5531911998987198e-02</internalNodes>
          <leafValues>
            2.7472528815269470e-01 -9.4202899932861328e-01</leafValues></_>
        <_>
          <internalNodes>
            0 -1 14 7.7911140397191048e-04</internalNodes>
          <leafValues>
            -7.5849115848541260e-01 4.9021258950233459e-01</leafValues></_>
        <_>
          <internalNodes>
            0 -1 10 6.0198050923645496e-03</internalNodes>
          <leafValues>
            -5.5030661821365356e-01 7.3203825950622559e-01</leafValues></_>
        <_>
          <internalNodes>
            0 -1 13 -2.9313083738088608e-02</internalNodes>
          <leafValues>
            5.6186604499816895e-01 -8.5734629631042480e-01</leafValues></_></weakClassifiers></_>
    <!-- stage 2 -->
    <_>
      <maxWeakCount>3</maxWeakCount>
      <stageThreshold>-5.8690220117568970e-01</stageThreshold>
      <weakClassifiers>
        <_>
          <internalNodes>
            0 -1 0 1.5043206512928009e-02</internalNodes>
          <leafValues>
            -6.3478261232376099e-01 7.3333334922790527e-01</leafValues></_>
        <_>
          <internalNodes>
            0 -1 1 -3.8307830691337585e-03</internalNodes>
          <leafValues>
            6.3557875156402588e-01 -6.5091919898986816e-01</leafValues></_>
        <_>
          <internalNodes>
            0 -1 24 1.1415879707783461e-03</internalNodes>
          <leafValues>
            -5.8769834041595459e-01 7.0218575000762939e-01</leafValues></_></weakClassifiers></_>
    <!-- stage 3 -->
    <_>
      <maxWeakCount>4</maxWeakCount>
      <stageThreshold>-5.7358253002166748e-01</stageThreshold>
      <weakClassifiers>
        <_>
          <internalNodes>
            0 -1 21 8.7766423821449280e-03</internalNodes>
          <leafValues>
            -7.0833331346511841e-01 4.3750000000000000e-01</leafValues></_>
        <_>
          <internalNodes>
            0 -1 6 7.1233851485885680e-05</internalNodes>
          <leafValues>
            3.9539951086044312e-01 -8.8957774639129639e-01</leafValues></_>
        <_>
          <internalNodes>
            0 -1 20 2.7696797624230385e-03</internalNodes>
          <leafValues>
            -6.0922932624816895e-01 6.2380337715148926e-01</leafValues></_>
        <_>
          <internalNodes>
            0 -1 15 -5.7791918516159058e-04</internalNodes>
          <leafValues>
            -8.8071787357330322e-01 4.8772454261779785e-01</leafValues></_></weakClassifiers></_>
    <!-- stage 4 -->
    <_>
      <maxWeakCount>5</maxWeakCount>
      <stageThreshold>-1.0304694175720215e+00</stageThreshold>
      <weakClassifiers>
        <_>
          <internalNodes>
            0 -1 9 -6.2401194125413895e-02</internalNodes>
          <leafValues>
            8.7878787517547607e-01 -5.4330706596374512e-01</leafValues></_>
        <_>
          <internalNodes>
            0 -1 25 3.3025075681507587e-03</internalNodes>
          <leafValues>
            4.6724832057952881e-01 -8.4462589025497437e-01</leafValues></_>
        <_>
          <internalNodes>
            0 -1 27 -4.8688484821468592e-04</internalNodes>
          <leafValues>
            6.4973706007003784e-01 -5.9788697957992554e-01</leafValues></_>
        <_>
          <internalNodes>
            0 -1 17 -5.7652575196698308e-04</internalNodes>
          <leafValues>
            5.5753803253173828e-01 -7.7272075414657593e-01</leafValues></_>
        <_>
          <internalNodes>
            0 -1 16 -5.2607961697503924e-04</internalNodes>
          <leafValues>
            -8.2475793361663818e-01 4.8044729232788086e-01</leafValues></_></weakClassifiers></_>
    <!-- stage 5 -->
    <_>
      <maxWeakCount>4</maxWeakCount>
      <stageThreshold>-4.8651748895645142e-01</stageThreshold>
      <weakClassifiers>
        <_>
          <internalNodes>
            0 -1 26 5.6148925796151161e-04</internalNodes>
          <leafValues>
            -7.6595747470855713e-01 4.8484849929809570e-01</leafValues></_>
        <_>
          <internalNodes>
            0 -1 7 6.9003528915345669e-04</internalNodes>
          <leafValues>
            -7.1076315641403198e-01 6.3880413770675659e-01</leafValues></_>
        <_>
          <internalNodes>
            0 -1 11 -4.1300743818283081e-02</internalNodes>
          <leafValues>
            -9.7513222694396973e-01 3.5125866532325745e-01</leafValues></_>
        <_>
          <internalNodes>
            0 -1 19 6.5858813468366861e-04</internalNodes>
          <leafValues>
            -6.1186146736145020e-01 6.4338111877441406e-01</leafValues></_></weakClassifiers></_>
    <!-- stage 6 -->
    <_>
      <maxWeakCount>4</maxWeakCount>
      <stageThreshold>-2.4080251157283783e-01</stageThreshold>
      <weakClassifiers>
        <_>
          <internalNodes>
            0 -1 5 -1.1892333626747131e-02</internalNodes>
          <leafValues>
            6.3333332538604736e-01 -7.7999997138977051e-01</leafValues></_>
        <_>
          <internalNodes>
            0 -1 4 -7.6669650152325630e-03</internalNodes>
          <leafValues>
            -8.8646906614303589e-01 4.6212825179100037e-01</leafValues></_>
        <_>
          <internalNodes>
            0 -1 22 2.3820194473955780e-04</internalNodes>
          <leafValues>
            -6.2320107221603394e-01 7.7075290679931641e-01</leafValues></_>
        <_>
          <internalNodes>
            0 -1 23 -1.7796127940528095e-04</internalNodes>
          <leafValues>
            7.0027035474777222e-01 -6.8042457103729248e-01</leafValues></_></weakClassifiers></_>
    <!-- stage 7 -->
    <_>
      <maxWeakCount>2</maxWeakCount>
      <stageThreshold>1.2906508147716522e-01</stageThreshold>
      <weakClassifiers>
        <_>
          <internalNodes>
            0 -1 2 -3.1505321385338902e-04</internalNodes>
          <leafValues>
            -8.5185188055038452e-01 1.</leafValues></_>
        <_>
          <internalNodes>
            0 -1 18 1.4940723776817322e-03</internalNodes>
          <leafValues>
            1. -8.7093490362167358e-01</leafValues></_></weakClassifiers></_></stages>
  <features>
    <_>
      <rects>
        <_>
          0 30 12 8 -1.</_>
        <_>
          0 30 6 4 2.</_>
        <_>
          6 34 6 4 2.</_></rects>
      <tilted>0</tilted></_>
    <_>
      <rects>
        <_>
          1 15 24 1 -1.</_>
        <_>
          7 21 12 1 2.</_></rects>
      <tilted>1</tilted></_>
    <_>
      <rects>
        <_>
          2 33 15 3 -1.</_>
        <_>
          7 34 5 1 9.</_></rects>
      <tilted>0</tilted></_>
    <_>
      <rects>
        <_>
          3 19 36 17 -1.</_>
        <_>
          12 19 18 17 2.</_></rects>
      <tilted>0</tilted></_>
    <_>
      <rects>
        <_>
          3 20 37 6 -1.</_>
        <_>
          3 23 37 3 2.</_></rects>
      <tilted>0</tilted></_>
    <_>
      <rects>
        <_>
          3 27 36 8 -1.</_>
        <_>
          12 27 18 8 2.</_></rects>
      <tilted>0</tilted></_>
    <_>
      <rects>
        <_>
          4 9 2 23 -1.</_>
        <_>
          5 9 1 23 2.</_></rects>
      <tilted>0</tilted></_>
    <_>
      <rects>
        <_>
          4 12 6 1 -1.</_>
        <_>
          4 12 3 1 2.</_></rects>
      <tilted>1</tilted></_>
    <_>
      <rects>
        <_>
          5 6 2 30 -1.</_>
        <_>
          5 16 2 10 2.</_></rects>
      <tilted>0</tilted></_>
    <_>
      <rects>
        <_>
          6 0 6 6 -1.</_>
        <_>
          6 0 3 6 2.</_></rects>
      <tilted>1</tilted></_>
    <_>
      <rects>
        <_>
          6 28 27 12 -1.</_>
        <_>
          6 34 27 6 2.</_></rects>
      <tilted>0</tilted></_>
    <_>
      <rects>
        <_>
          10 5 22 15 -1.</_>
        <_>
          21 5 11 15 2.</_></rects>
      <tilted>0</tilted></_>
    <_>
      <rects>
        <_>
          12 1 17 8 -1.</_>
        <_>
          12 5 17 4 2.</_></rects>
      <tilted>0</tilted></_>
    <_>
      <rects>
        <_>
          13 0 20 3 -1.</_>
        <_>
          13 1 20 1 2.</_></rects>
      <tilted>0</tilted></_>
    <_>
      <rects>
        <_>
          16 0 4 9 -1.</_>
        <_>
          16 0 2 9 2.</_></rects>
      <tilted>1</tilted></_>
    <_>
      <rects>
        <_>
          16 21 4 2 -1.</_>
        <_>
          17 22 2 2 2.</_></rects>
      <tilted>1</tilted></_>
    <_>
      <rects>
        <_>
          19 31 11 6 -1.</_>
        <_>
          19 34 11 3 2.</_></rects>
      <tilted>0</tilted></_>
    <_>
      <rects>
        <_>
          22 1 3 8 -1.</_>
        <_>
          22 5 3 4 2.</_></rects>
      <tilted>0</tilted></_>
    <_>
      <rects>
        <_>
          22 19 8 1 -1.</_>
        <_>
          22 19 4 1 2.</_></rects>
      <tilted>1</tilted></_>
    <_>
      <rects>
        <_>
          26 1 10 2 -1.</_>
        <_>
          26 1 10 1 2.</_></rects>
      <tilted>1</tilted></_>
    <_>
      <rects>
        <_>
          26 29 8 8 -1.</_>
        <_>
          26 33 8 4 2.</_></rects>
      <tilted>0</tilted></_>
    <_>
      <rects>
        <_>
          30 10 10 22 -1.</_>
        <_>
          35 10 5 22 2.</_></rects>
      <tilted>0</tilted></_>
    <_>
      <rects>
        <_>
          30 28 8 1 -1.</_>
        <_>
          34 28 4 1 2.</_></rects>
      <tilted>0</tilted></_>
    <_>
      <rects>
        <_>
          31 33 2 4 -1.</_>
        <_>
          31 33 1 4 2.</_></rects>
      <tilted>1</tilted></_>
    <_>
      <rects>
        <_>
          32 5 8 2 -1.</_>
        <_>
          32 5 8 1 2.</_></rects>
      <tilted>1</tilted></_>
    <_>
      <rects>
        <_>
          33 14 1 24 -1.</_>
        <_>
          33 14 1 12 2.</_></rects>
      <tilted>1</tilted></_>
    <_>
      <rects>
        <_>
          35 13 4 10 -1.</_>
        <_>
          37 13 2 10 2.</_></rects>
      <tilted>0</tilted></_>
    <_>
      <rects>
        <_>
          37 29 2 7 -1.</_>
        <_>
          37 29 1 7 2.</_></rects>
      <tilted>1</tilted></_></features></cascade>
</opencv_storage>
