<?xml version="1.0"?>
<opencv_storage>
<stage4>
  <maxWeakCount>5</maxWeakCount>
  <stageThreshold>-1.0304694175720215e+00</stageThreshold>
  <weakClassifiers>
    <_>
      <internalNodes>
        0 -1 469276 -6.2401194125413895e-02</internalNodes>
      <leafValues>
        8.7878787517547607e-01 -5.4330706596374512e-01</leafValues></_>
    <_>
      <internalNodes>
        0 -1 1970980 3.3025075681507587e-03</internalNodes>
      <leafValues>
        4.6724832057952881e-01 -8.4462589025497437e-01</leafValues></_>
    <_>
      <internalNodes>
        0 -1 2035864 -4.8688484821468592e-04</internalNodes>
      <leafValues>
        6.4973706007003784e-01 -5.9788697957992554e-01</leafValues></_>
    <_>
      <internalNodes>
        0 -1 1531085 -5.7652575196698308e-04</internalNodes>
      <leafValues>
        5.5753803253173828e-01 -7.7272075414657593e-01</leafValues></_>
    <_>
      <internalNodes>
        0 -1 1416958 -5.2607961697503924e-04</internalNodes>
      <leafValues>
        -8.2475793361663818e-01 4.8044729232788086e-01</leafValues></_></weakClassifiers></stage4>
</opencv_storage>
